digraph Tree {
node [shape=box] ;
0 [label="X[6] <= 1.4\nentropy = 1.571\nsamples = 106\nvalue = [36, 41, 29]"] ;
1 [label="X[9] <= 3.725\nentropy = 0.661\nsamples = 35\nvalue = [0, 6, 29]"] ;
0 -> 1 [labeldistance=2.5, labelangle=45, headlabel="True"] ;
2 [label="entropy = 0.0\nsamples = 6\nvalue = [0, 6, 0]"] ;
1 -> 2 ;
3 [label="entropy = 0.0\nsamples = 29\nvalue = [0, 0, 29]"] ;
1 -> 3 ;
4 [label="X[12] <= 676.0\nentropy = 1.0\nsamples = 71\nvalue = [36, 35, 0]"] ;
0 -> 4 [labeldistance=2.5, labelangle=-45, headlabel="False"] ;
5 [label="entropy = 0.0\nsamples = 31\nvalue = [0, 31, 0]"] ;
4 -> 5 ;
6 [label="X[0] <= 13.02\nentropy = 0.469\nsamples = 40\nvalue = [36, 4, 0]"] ;
4 -> 6 ;
7 [label="X[1] <= 2.735\nentropy = 0.722\nsamples = 5\nvalue = [1, 4, 0]"] ;
6 -> 7 ;
8 [label="entropy = 0.0\nsamples = 4\nvalue = [0, 4, 0]"] ;
7 -> 8 ;
9 [label="entropy = 0.0\nsamples = 1\nvalue = [1, 0, 0]"] ;
7 -> 9 ;
10 [label="entropy = 0.0\nsamples = 35\nvalue = [35, 0, 0]"] ;
6 -> 10 ;
}